digraph Tree {
node [shape=box, style="filled, rounded", color="black", fontname=helvetica] ;
edge [fontname=helvetica] ;
0 [label="percent_price <= 0.001\ngini = 0.5\nsamples = 12393\nvalue = [6276, 6117]", fillcolor="#fefcfa"] ;
1 [label="percent_price_t-5 <= 0.004\ngini = 0.498\nsamples = 7839\nvalue = [4147, 3692]", fillcolor="#fcf1e9"] ;
0 -> 1 [labeldistance=2.5, labelangle=45, headlabel="True"] ;
2 [label="quoteQty <= 21666.123\ngini = 0.497\nsamples = 7475\nvalue = [4009, 3466]", fillcolor="#fbeee4"] ;
1 -> 2 ;
3 [label="percent_price <= -0.001\ngini = 0.479\nsamples = 888\nvalue = [535, 353]", fillcolor="#f6d4bc"] ;
2 -> 3 ;
4 [label="quoteQty <= 9619.916\ngini = 0.371\nsamples = 199\nvalue = [150, 49]", fillcolor="#edaa7a"] ;
3 -> 4 ;
5 [label="gini = 0.149\nsamples = 37\nvalue = [34, 3]", fillcolor="#e78c4a"] ;
4 -> 5 ;
6 [label="gini = 0.407\nsamples = 162\nvalue = [116, 46]", fillcolor="#efb388"] ;
4 -> 6 ;
7 [label="percent_price_t-5 <= -0.001\ngini = 0.493\nsamples = 689\nvalue = [385, 304]", fillcolor="#fae4d5"] ;
3 -> 7 ;
8 [label="gini = 0.437\nsamples = 130\nvalue = [88, 42]", fillcolor="#f1bd98"] ;
7 -> 8 ;
9 [label="gini = 0.498\nsamples = 559\nvalue = [297, 262]", fillcolor="#fcf0e8"] ;
7 -> 9 ;
10 [label="quoteQty_t-25 <= 502500.859\ngini = 0.498\nsamples = 6587\nvalue = [3474, 3113]", fillcolor="#fcf2ea"] ;
2 -> 10 ;
11 [label="percent_price <= -0.003\ngini = 0.498\nsamples = 6384\nvalue = [3394, 2990]", fillcolor="#fcf0e7"] ;
10 -> 11 ;
12 [label="gini = 0.5\nsamples = 1533\nvalue = [755, 778]", fillcolor="#f9fcfe"] ;
11 -> 12 ;
13 [label="gini = 0.496\nsamples = 4851\nvalue = [2639, 2212]", fillcolor="#fbebdf"] ;
11 -> 13 ;
14 [label="percent_price_t-15 <= -0.005\ngini = 0.478\nsamples = 203\nvalue = [80, 123]", fillcolor="#baddf6"] ;
10 -> 14 ;
15 [label="gini = 0.401\nsamples = 18\nvalue = [13, 5]", fillcolor="#efb185"] ;
14 -> 15 ;
16 [label="gini = 0.462\nsamples = 185\nvalue = [67, 118]", fillcolor="#a9d5f4"] ;
14 -> 16 ;
17 [label="percent_price_t-10 <= -0.001\ngini = 0.471\nsamples = 364\nvalue = [138, 226]", fillcolor="#b2d9f5"] ;
1 -> 17 ;
18 [label="quoteQty_t-20 <= 523640.391\ngini = 0.498\nsamples = 113\nvalue = [60, 53]", fillcolor="#fcf0e8"] ;
17 -> 18 ;
19 [label="percent_price_t-20 <= -0.0\ngini = 0.489\nsamples = 103\nvalue = [59, 44]", fillcolor="#f8dfcd"] ;
18 -> 19 ;
20 [label="gini = 0.482\nsamples = 47\nvalue = [19, 28]", fillcolor="#bfe0f7"] ;
19 -> 20 ;
21 [label="gini = 0.408\nsamples = 56\nvalue = [40, 16]", fillcolor="#efb388"] ;
19 -> 21 ;
22 [label="percent_price <= -0.009\ngini = 0.18\nsamples = 10\nvalue = [1, 9]", fillcolor="#4fa8e8"] ;
18 -> 22 ;
23 [label="gini = 0.0\nsamples = 1\nvalue = [1, 0]", fillcolor="#e58139"] ;
22 -> 23 ;
24 [label="gini = 0.0\nsamples = 9\nvalue = [0, 9]", fillcolor="#399de5"] ;
22 -> 24 ;
25 [label="quoteQty_t-5 <= 399474.938\ngini = 0.428\nsamples = 251\nvalue = [78, 173]", fillcolor="#92c9f1"] ;
17 -> 25 ;
26 [label="quoteQty_t-10 <= 16642.824\ngini = 0.392\nsamples = 209\nvalue = [56, 153]", fillcolor="#81c1ef"] ;
25 -> 26 ;
27 [label="gini = 0.484\nsamples = 17\nvalue = [10, 7]", fillcolor="#f7d9c4"] ;
26 -> 27 ;
28 [label="gini = 0.364\nsamples = 192\nvalue = [46, 146]", fillcolor="#77bced"] ;
26 -> 28 ;
29 [label="percent_price_t-5 <= 0.007\ngini = 0.499\nsamples = 42\nvalue = [22, 20]", fillcolor="#fdf4ed"] ;
25 -> 29 ;
30 [label="gini = 0.428\nsamples = 29\nvalue = [20, 9]", fillcolor="#f1ba92"] ;
29 -> 30 ;
31 [label="gini = 0.26\nsamples = 13\nvalue = [2, 11]", fillcolor="#5dafea"] ;
29 -> 31 ;
32 [label="percent_price_t-5 <= -0.005\ngini = 0.498\nsamples = 4554\nvalue = [2129, 2425]", fillcolor="#e7f3fc"] ;
0 -> 32 [labeldistance=2.5, labelangle=-45, headlabel="False"] ;
33 [label="percent_price_t-20 <= 0.003\ngini = 0.469\nsamples = 213\nvalue = [133, 80]", fillcolor="#f5cdb0"] ;
32 -> 33 ;
34 [label="percent_price_t-10 <= 0.008\ngini = 0.44\nsamples = 171\nvalue = [115, 56]", fillcolor="#f2be99"] ;
33 -> 34 ;
35 [label="quoteQty_t-15 <= 64913.371\ngini = 0.429\nsamples = 167\nvalue = [115, 52]", fillcolor="#f1ba93"] ;
34 -> 35 ;
36 [label="gini = 0.278\nsamples = 48\nvalue = [40, 8]", fillcolor="#ea9a61"] ;
35 -> 36 ;
37 [label="gini = 0.466\nsamples = 119\nvalue = [75, 44]", fillcolor="#f4cbad"] ;
35 -> 37 ;
38 [label="gini = 0.0\nsamples = 4\nvalue = [0, 4]", fillcolor="#399de5"] ;
34 -> 38 ;
39 [label="percent_price_t-15 <= 0.002\ngini = 0.49\nsamples = 42\nvalue = [18, 24]", fillcolor="#cee6f8"] ;
33 -> 39 ;
40 [label="quoteQty_t-10 <= 612266.656\ngini = 0.438\nsamples = 34\nvalue = [11, 23]", fillcolor="#98ccf1"] ;
39 -> 40 ;
41 [label="gini = 0.383\nsamples = 31\nvalue = [8, 23]", fillcolor="#7ebfee"] ;
40 -> 41 ;
42 [label="gini = 0.0\nsamples = 3\nvalue = [3, 0]", fillcolor="#e58139"] ;
40 -> 42 ;
43 [label="quoteQty_t-15 <= 386708.797\ngini = 0.219\nsamples = 8\nvalue = [7, 1]", fillcolor="#e99355"] ;
39 -> 43 ;
44 [label="gini = 0.0\nsamples = 7\nvalue = [7, 0]", fillcolor="#e58139"] ;
43 -> 44 ;
45 [label="gini = 0.0\nsamples = 1\nvalue = [0, 1]", fillcolor="#399de5"] ;
43 -> 45 ;
46 [label="percent_price <= 0.004\ngini = 0.497\nsamples = 4341\nvalue = [1996, 2345]", fillcolor="#e2f0fb"] ;
32 -> 46 ;
47 [label="quoteQty <= 43300.818\ngini = 0.499\nsamples = 3517\nvalue = [1679, 1838]", fillcolor="#eef7fd"] ;
46 -> 47 ;
48 [label="percent_price_t-5 <= -0.002\ngini = 0.498\nsamples = 801\nvalue = [427, 374]", fillcolor="#fcefe6"] ;
47 -> 48 ;
49 [label="gini = 0.454\nsamples = 198\nvalue = [129, 69]", fillcolor="#f3c4a3"] ;
48 -> 49 ;
50 [label="gini = 0.5\nsamples = 603\nvalue = [298, 305]", fillcolor="#fafdfe"] ;
48 -> 50 ;
51 [label="percent_price_t-10 <= -0.007\ngini = 0.497\nsamples = 2716\nvalue = [1252, 1464]", fillcolor="#e2f1fb"] ;
47 -> 51 ;
52 [label="gini = 0.266\nsamples = 19\nvalue = [16, 3]", fillcolor="#ea995e"] ;
51 -> 52 ;
53 [label="gini = 0.497\nsamples = 2697\nvalue = [1236, 1461]", fillcolor="#e1f0fb"] ;
51 -> 53 ;
54 [label="percent_price <= 0.01\ngini = 0.473\nsamples = 824\nvalue = [317, 507]", fillcolor="#b5daf5"] ;
46 -> 54 ;
55 [label="percent_price_t-5 <= 0.008\ngini = 0.478\nsamples = 794\nvalue = [314, 480]", fillcolor="#bbddf6"] ;
54 -> 55 ;
56 [label="gini = 0.476\nsamples = 787\nvalue = [307, 480]", fillcolor="#b8dcf6"] ;
55 -> 56 ;
57 [label="gini = 0.0\nsamples = 7\nvalue = [7, 0]", fillcolor="#e58139"] ;
55 -> 57 ;
58 [label="percent_price_t-5 <= -0.004\ngini = 0.18\nsamples = 30\nvalue = [3, 27]", fillcolor="#4fa8e8"] ;
54 -> 58 ;
59 [label="gini = 0.5\nsamples = 6\nvalue = [3, 3]", fillcolor="#ffffff"] ;
58 -> 59 ;
60 [label="gini = 0.0\nsamples = 24\nvalue = [0, 24]", fillcolor="#399de5"] ;
58 -> 60 ;
}